tree
version=v4
num_class=1
num_tree_per_iteration=1
label_index=0
max_feature_idx=385
objective=binary sigmoid:1
feature_names=Column_0 Column_1 Column_2 Column_3 Column_4 Column_5 Column_6 Column_7 Column_8 Column_9 Column_10 Column_11 Column_12 Column_13 Column_14 Column_15 Column_16 Column_17 Column_18 Column_19 Column_20 Column_21 Column_22 Column_23 Column_24 Column_25 Column_26 Column_27 Column_28 Column_29 Column_30 Column_31 Column_32 Column_33 Column_34 Column_35 Column_36 Column_37 Column_38 Column_39 Column_40 Column_41 Column_42 Column_43 Column_44 Column_45 Column_46 Column_47 Column_48 Column_49 Column_50 Column_51 Column_52 Column_53 Column_54 Column_55 Column_56 Column_57 Column_58 Column_59 Column_60 Column_61 Column_62 Column_63 Column_64 Column_65 Column_66 Column_67 Column_68 Column_69 Column_70 Column_71 Column_72 Column_73 Column_74 Column_75 Column_76 Column_77 Column_78 Column_79 Column_80 Column_81 Column_82 Column_83 Column_84 Column_85 Column_86 Column_87 Column_88 Column_89 Column_90 Column_91 Column_92 Column_93 Column_94 Column_95 Column_96 Column_97 Column_98 Column_99 Column_100 Column_101 Column_102 Column_103 Column_104 Column_105 Column_106 Column_107 Column_108 Column_109 Column_110 Column_111 Column_112 Column_113 Column_114 Column_115 Column_116 Column_117 Column_118 Column_119 Column_120 Column_121 Column_122 Column_123 Column_124 Column_125 Column_126 Column_127 Column_128 Column_129 Column_130 Column_131 Column_132 Column_133 Column_134 Column_135 Column_136 Column_137 Column_138 Column_139 Column_140 Column_141 Column_142 Column_143 Column_144 Column_145 Column_146 Column_147 Column_148 Column_149 Column_150 Column_151 Column_152 Column_153 Column_154 Column_155 Column_156 Column_157 Column_158 Column_159 Column_160 Column_161 Column_162 Column_163 Column_164 Column_165 Column_166 Column_167 Column_168 Column_169 Column_170 Column_171 Column_172 Column_173 Column_174 Column_175 Column_176 Column_177 Column_178 Column_179 Column_180 Column_181 Column_182 Column_183 Column_184 Column_185 Column_186 Column_187 Column_188 Column_189 Column_190 Column_191 Column_192 Column_193 Column_194 Column_195 Column_196 Column_197 Column_198 Column_199 Column_200 Column_201 Column_202 Column_203 Column_204 Column_205 Column_206 Column_207 Column_208 Column_209 Column_210 Column_211 Column_212 Column_213 Column_214 Column_215 Column_216 Column_217 Column_218 Column_219 Column_220 Column_221 Column_222 Column_223 Column_224 Column_225 Column_226 Column_227 Column_228 Column_229 Column_230 Column_231 Column_232 Column_233 Column_234 Column_235 Column_236 Column_237 Column_238 Column_239 Column_240 Column_241 Column_242 Column_243 Column_244 Column_245 Column_246 Column_247 Column_248 Column_249 Column_250 Column_251 Column_252 Column_253 Column_254 Column_255 Column_256 Column_257 Column_258 Column_259 Column_260 Column_261 Column_262 Column_263 Column_264 Column_265 Column_266 Column_267 Column_268 Column_269 Column_270 Column_271 Column_272 Column_273 Column_274 Column_275 Column_276 Column_277 Column_278 Column_279 Column_280 Column_281 Column_282 Column_283 Column_284 Column_285 Column_286 Column_287 Column_288 Column_289 Column_290 Column_291 Column_292 Column_293 Column_294 Column_295 Column_296 Column_297 Column_298 Column_299 Column_300 Column_301 Column_302 Column_303 Column_304 Column_305 Column_306 Column_307 Column_308 Column_309 Column_310 Column_311 Column_312 Column_313 Column_314 Column_315 Column_316 Column_317 Column_318 Column_319 Column_320 Column_321 Column_322 Column_323 Column_324 Column_325 Column_326 Column_327 Column_328 Column_329 Column_330 Column_331 Column_332 Column_333 Column_334 Column_335 Column_336 Column_337 Column_338 Column_339 Column_340 Column_341 Column_342 Column_343 Column_344 Column_345 Column_346 Column_347 Column_348 Column_349 Column_350 Column_351 Column_352 Column_353 Column_354 Column_355 Column_356 Column_357 Column_358 Column_359 Column_360 Column_361 Column_362 Column_363 Column_364 Column_365 Column_366 Column_367 Column_368 Column_369 Column_370 Column_371 Column_372 Column_373 Column_374 Column_375 Column_376 Column_377 Column_378 Column_379 Column_380 Column_381 Column_382 Column_383 Column_384 Column_385
feature_infos=[-0.20133647322654724:0.8270753026008606] [-0.20133647322654724:0.82707542181015015] [2.1737068891525269e-06:0.20485585927963257] [2.0712614059448242e-06:0.23424294590950012] [1.6633421182632446e-06:0.22735235095024109] [7.8603625297546387e-06:0.19284792244434357] [7.5427815318107605e-06:0.19137558341026306] [7.6070427894592285e-06:0.27433127164840698] [5.4854899644851685e-07:0.20656713843345642] [5.1222741603851318e-06:0.22613418102264404] [3.5561621189117432e-05:0.2829902172088623] [8.5867941379547119e-07:0.23298132419586182] [5.289912223815918e-07:0.28206524252891541] [2.9616057872772217e-07:0.2341124564409256] [4.1285529732704163e-06:0.20803236961364746] [4.7152861952781677e-06:0.21111680567264557] [4.6305358409881592e-06:0.20897415280342102] [1.2852251529693604e-06:0.28888452053070068] [1.4163553714752197e-05:0.24845400452613831] [9.1269612312316895e-08:0.21259516477584839] [7.2140246629714966e-06:0.22362828254699707] [3.0547380447387695e-06:0.29281455278396606] [7.4505805969238281e-09:0.20231656730175018] [4.2840838432312012e-07:0.1958029717206955] [1.0803341865539551e-07:0.18914395570755005] [6.2286853790283203e-06:0.27547857165336609] [8.9276582002639771e-06:0.3506019115447998] [5.0989910960197449e-07:0.16956354677677155] [3.7476420402526855e-06:0.25494128465652466] [1.9762665033340454e-06:0.20985767245292664] [3.5576522350311279e-07:0.17840036749839783] [8.4787607192993164e-06:0.24980831146240234] [2.6952475309371948e-06:0.20319065451622009] [8.0331228673458099e-06:0.17770472168922424] [3.7886202335357666e-06:0.25063911080360413] [2.5365501642227173e-05:0.28584927320480347] [1.0367482900619507e-05:0.28014600276947021] [7.757917046546936e-06:0.22237417101860046] [5.4761767387390137e-07:0.19814863801002502] [8.4042549133300781e-06:0.23067450523376465] [1.3483688235282898e-05:0.26863813400268555] [2.2280961275100708e-05:0.21577152609825134] [2.8554350137710571e-06:0.27458012104034424] [4.9173831939697266e-07:0.21982795000076294] [2.428889274597168e-06:0.20296287536621094] [3.468245267868042e-06:0.26630690693855286] [2.6211404474452138e-05:0.24716350436210632] [2.1979212760925293e-06:0.19603115320205688] [1.6076955944299698e-06:0.1748923659324646] [3.0696392059326172e-06:0.21164292097091675] [1.7713755369186401e-06:0.31432265043258667] [6.4820051193237305e-07:0.22650924324989319] [5.7741999626159668e-08:0.25856027007102966] [2.9802322387695312e-07:0.22046107053756714] [6.0722231864929199e-07:0.18494519591331482] [8.5011124610900879e-06:0.19534790515899658] [1.615891233086586e-05:0.30460923910140991] [2.2202730178833008e-06:0.24813368916511536] [1.5310943126678467e-06:0.25272306799888611] [2.6444904506206512e-06:0.18864959478378296] [5.7001598179340363e-06:0.18678288161754608] [1.516193151473999e-06:0.32236224412918091] [1.0887160897254944e-05:0.2252969890832901] [1.1399388313293457e-06:0.18354445695877075] [1.1764466762542725e-05:0.14266960322856903] [4.597008228302002e-06:0.17935705184936523] [4.1211023926734924e-06:0.23200106620788574] [1.5357509255409241e-06:0.19861048460006714] [5.0216913223266602e-06:0.22732709348201752] [3.1106173992156982e-07:0.24285995960235596] [8.7618827819824219e-06:0.25972849130630493] [7.1711838245391846e-07:0.21414804458618164] [2.3655593395233154e-07:0.30272704362869263] [6.0573220252990723e-06:0.21161806583404541] [5.5730342864990234e-06:0.2685103714466095] [5.5804848670959473e-06:0.20915770530700684] [1.0177493095397949e-05:0.28366494178771973] [9.0915709733963013e-06:0.29990914463996887] [1.3988465070724487e-06:0.18647155165672302] [4.66126948595047e-06:0.19995737075805664] [1.2474134564399719e-05:0.27848654985427856] [6.8545341491699219e-07:0.213939368724823] [1.0445713996887207e-05:0.18897201120853424] [2.591288648545742e-05:0.21047787368297577] [8.3371996879577637e-06:0.23629920184612274] [6.5639615058898926e-06:0.22500316798686981] [7.8268349170684814e-06:0.17368650436401367] [1.4825724065303802e-05:0.25098112225532532] [2.0861625671386719e-06:0.20270755887031555] [8.6799263954162598e-07:0.2277628481388092] [1.2672971934080124e-06:0.20203348994255066] [2.0751467673107982e-06:0.24646566808223724] [5.4836273193359375e-06:0.35193401575088501] [1.6577541828155518e-06:0.21441322565078735] [2.4710316210985184e-06:0.24758900701999664] [1.0017305612564087e-05:0.2351716160774231] [6.4773485064506531e-07:0.26602822542190552] [3.9618462324142456e-06:0.19552576541900635] [3.5311095416545868e-06:0.23984609544277191] [2.4493783712387085e-07:0.17704790830612183] [1.2740492820739746e-06:0.27216705679893494] [7.7113509178161621e-07:0.14484876394271851] [5.4389238357543945e-07:0.19585373997688293] [3.0081719160079956e-07:0.24183085560798645] [1.074373722076416e-05:0.19799730181694031] [1.0602176189422607e-05:0.22688338160514832] [1.3932585716247559e-06:0.31047040224075317] [1.8179416656494141e-06:0.26062729954719543] [9.0645626187324524e-06:0.25760048627853394] [4.4796615839004517e-07:0.25036340951919556] [1.6926787793636322e-06:0.22598958015441895] [1.2163072824478149e-06:0.23474684357643127] [1.3712793588638306e-05:0.20353373885154724] [2.9802322387695312e-07:0.18350258469581604] [6.7725777626037598e-06:0.25955837965011597] [6.6645443439483643e-06:0.2964705228805542] [3.2559037208557129e-06:0.19018711149692535] [1.8142163753509521e-06:0.2331908792257309] [2.2873282432556152e-06:0.25205016136169434] [1.2617558240890503e-05:0.17686954140663147] [3.9748847484588623e-06:0.23272399604320526] [1.6367062926292419e-05:0.30588966608047485] [4.6938657760620117e-07:0.23787638545036316] [2.4326145648956299e-06:0.23809422552585602] [1.559033989906311e-06:0.29014724493026733] [1.4901161193847656e-07:0.24796691536903381] [3.5390257835388184e-07:0.24167105555534363] [1.2278556823730469e-05:0.19025605916976929] [2.1606683731079102e-07:0.28992944955825806] [0:2.3945340082500235e-32] [3.8081780076026917e-06:0.20432023704051971] [2.3864209651947021e-05:0.14488397538661957] [2.8804643079638481e-06:0.19155207276344299] [3.3956021070480347e-06:0.22134929895401001] [4.161149263381958e-06:0.23260712623596191] [1.3327226042747498e-06:0.19968859851360321] [3.6545097827911377e-06:0.16683907806873322] [1.0643154382705688e-05:0.27693992853164673] [1.0654330253601074e-06:0.2502056360244751] [7.6815485954284668e-06:0.18724071979522705] [3.3341348171234131e-07:0.21832314133644104] [5.4240226745605469e-06:0.26742768287658691] [2.1100044250488281e-05:0.2517109215259552] [1.1576339602470398e-06:0.27759671211242676] [5.4799020290374756e-06:0.30246913433074951] [8.7460502982139587e-06:0.25561031699180603] [8.2626938819885254e-06:0.31329742074012756] [3.8258731365203857e-06:0.22956793010234833] [3.5837292671203613e-06:0.28475290536880493] [6.3106417655944824e-06:0.23074612021446228] [5.3457915782928467e-06:0.19380977749824524] [6.8731606006622314e-07:0.22022747993469238] [1.3777986168861389e-05:0.17668402194976807] [6.3329935073852539e-08:0.22394548356533051] [8.9406967163085938e-08:0.25665944814682007] [3.4160912036895752e-06:0.23042583465576172] [2.08243727684021e-06:0.20329180359840393] [1.5012919902801514e-06:0.23741430044174194] [7.3164701461791992e-06:0.22630622982978821] [3.7159770727157593e-06:0.10392387211322784] [7.2941184043884277e-06:0.2666454017162323] [9.9930912256240845e-07:0.18482357263565063] [1.7061829566955566e-06:0.2181047797203064] [5.9902667999267578e-06:0.2486533522605896] [1.2673437595367432e-05:0.22863149642944336] [3.2298266887664795e-06:0.16778397560119629] [1.261197030544281e-05:0.18969361484050751] [2.7008354663848877e-06:0.19707836210727692] [1.5050172805786133e-06:0.25859582424163818] [1.8516089767217636e-05:0.30564621090888977] [6.198883056640625e-06:0.2408265620470047] [1.4565885066986084e-06:0.18697264790534973] [1.7210841178894043e-06:0.30187517404556274] [4.4703483581542969e-06:0.22075802087783813] [9.1269612312316895e-07:0.1942848414182663] [1.7620623111724854e-06:0.23139555752277374] [3.6004930734634399e-06:0.18137094378471375] [6.6496431827545166e-07:0.1749289482831955] [1.4640390872955322e-06:0.29453349113464355] [8.150935173034668e-06:0.27252024412155151] [1.405179500579834e-05:0.23781919479370117] [3.729015588760376e-06:0.26129829883575439] [6.5490603446960449e-06:0.2479226142168045] [3.4049153327941895e-06:0.26850306987762451] [5.1409006118774414e-07:0.18575453758239746] [7.2307884693145752e-06:0.24927029013633728] [8.9667737483978271e-06:0.24307495355606079] [1.8883496522903442e-05:0.26120409369468689] [4.3231993913650513e-06:0.18976786732673645] [1.7099082469940186e-06:0.29343074560165405] [1.2274831533432007e-06:0.26173114776611328] [2.6370398700237274e-06:0.21912914514541626] [1.4863908290863037e-06:0.1625293493270874] [2.4419277906417847e-06:0.24696847796440125] [1.3776123523712158e-05:0.25533899664878845] [3.8836151361465454e-06:0.23780542612075806] [3.0025839805603027e-06:0.20201942324638367] [6.33997842669487e-07:0.22720319032669067] [7.2419643402099609e-06:0.283355712890625] [9.5292925834655762e-06:0.25712448358535767] [6.1020255088806152e-06:0.2525331974029541] [1.2889504432678223e-06:0.17319691181182861] [9.3057751655578613e-06:0.23900440335273743] [9.1269612312316895e-07:0.18430933356285095] [1.0095536708831787e-06:0.176512211561203] [4.5136548578739166e-06:0.20777294039726257] [4.2049214243888855e-06:0.1932089626789093] [1.6288831830024719e-06:0.24527591466903687] [3.8375146687030792e-06:0.21150508522987366] [3.119930624961853e-06:0.21787483990192413] [3.923662006855011e-06:0.27816885709762573] [2.7008354663848877e-08:0.1945989727973938] [2.1345913410186768e-06:0.19906026124954224] [1.180451363325119e-06:0.22933748364448547] [1.5683472156524658e-06:0.24706752598285675] [4.76837158203125e-07:0.24872389435768127] [6.1746686697006226e-06:0.18818238377571106] [6.9290399551391602e-06:0.19115822017192841] [8.0708414316177368e-06:0.19361478090286255] [5.1222741603851318e-06:0.21958780288696289] [6.9113448262214661e-06:0.21135777235031128] [2.9075890779495239e-06:0.18709786236286163] [4.8801302909851074e-07:0.22162958979606628] [3.2652169466018677e-06:0.22198647260665894] [1.7168000340461731e-05:0.19547808170318604] [0:2.0241041468952424e-32] [5.9530138969421387e-06:0.23676100373268127] [1.6742851585149765e-05:0.23934748768806458] [6.1281025409698486e-06:0.2170848548412323] [7.674098014831543e-07:0.23234342038631439] [5.4500997066497803e-06:0.2758324146270752] [1.6763806343078613e-08:0.29017579555511475] [7.9628080129623413e-06:0.22685715556144714] [2.8833746910095215e-06:0.20078237354755402] [3.4049153327941895e-06:0.1938079446554184] [6.7055225372314453e-07:0.2133367657661438] [2.7362257242202759e-06:0.19636158645153046] [1.8496066331863403e-06:0.18050152063369751] [1.0453164577484131e-05:0.20455208420753479] [2.384185791015625e-06:0.22372950613498688] [4.6342611312866211e-06:0.17305883765220642] [1.957407221198082e-06:0.18421775102615356] [5.0012022256851196e-06:0.24241571128368378] [3.4319236874580383e-07:0.24072273075580597] [1.1648982763290405e-05:0.19946302473545074] [8.8326632976531982e-06:0.19325082004070282] [3.7439167499542236e-07:0.24332210421562195] [6.3031911849975586e-06:0.24676617980003357] [3.2372772693634033e-06:0.265057772397995] [4.0577724575996399e-06:0.21360895037651062] [6.8442896008491516e-06:0.24170775711536407] [1.2657605111598969e-05:0.1823275089263916] [9.6857547760009766e-08:0.22771121561527252] [3.2596290111541748e-06:0.23400869965553284] [2.7008354663848877e-06:0.25983583927154541] [4.7907233238220215e-06:0.19884878396987915] [2.0749866962432861e-06:0.16730758547782898] [1.0227784514427185e-05:0.20768745243549347] [3.5762786865234375e-06:0.19926835596561432] [4.4070184230804443e-06:0.19501380622386932] [6.7725777626037598e-06:0.28752535581588745] [4.5672059059143066e-06:0.35327959060668945] [7.0501118898391724e-07:0.25451385974884033] [8.1658363342285156e-06:0.23488868772983551] [1.076236367225647e-05:0.20291373133659363] [8.150935173034668e-06:0.26686751842498779] [2.0541250705718994e-05:0.22993093729019165] [2.0526349544525146e-06:0.19212706387042999] [1.1789408745244145e-05:0.17827907204627991] [5.8487057685852051e-07:0.22685885429382324] [5.7183206081390381e-06:0.18911819159984589] [4.9322843551635742e-06:0.20933236181735992] [5.0747767090797424e-06:0.20707494020462036] [6.1318278312683105e-06:0.29590350389480591] [2.4959444999694824e-07:0.24880819022655487] [1.239776611328125e-05:0.28182670474052429] [1.4174729585647583e-06:0.20744600892066956] [3.5203993320465088e-06:0.19755430519580841] [2.9504299163818359e-06:0.2225482165813446] [3.0491501092910767e-06:0.23346921801567078] [4.7218054533004761e-06:0.18560303747653961] [1.6430392861366272e-05:0.19826334714889526] [1.6391277313232422e-06:0.23774611949920654] [1.3727694749832153e-05:0.19761465489864349] [7.8417360782623291e-07:0.23033179342746735] [1.4140736311674118e-05:0.20963349938392639] [9.017065167427063e-06:0.19896459579467773] [2.5331974029541016e-07:0.18107631802558899] [1.595914363861084e-05:0.30942040681838989] [1.5366822481155396e-06:0.22709585726261139] [2.6226043701171875e-06:0.17981532216072083] [2.6151537895202637e-06:0.2214924693107605] [5.6996941566467285e-07:0.21972939372062683] [2.5108456611633301e-06:0.24357974529266357] [4.9173831939697266e-07:0.24980296194553375] [2.2416934370994568e-06:0.20174497365951538] [2.7976930141448975e-06:0.23387807607650757] [2.4259090423583984e-05:0.23046457767486572] [4.530884325504303e-07:0.20981204509735107] [1.8663704395294189e-06:0.21622493863105774] [5.8412551879882812e-06:0.32640203833580017] [8.0242753028869629e-06:0.3109801709651947] [1.4249235391616821e-05:0.27537143230438232] [2.5611370801925659e-06:0.22869566082954407] [7.1376562118530273e-06:0.18326699733734131] [1.3198470696806908e-05:0.18118232488632202] [5.2563846111297607e-06:0.20234474539756775] [1.2617558240890503e-05:0.19730560481548309] [3.3713877201080322e-06:0.20915219187736511] [3.814697265625e-06:0.25460690259933472] [9.234994649887085e-06:0.19513425230979919] [1.8179416656494141e-06:0.21868181228637695] [7.0058740675449371e-07:0.16880804300308228] [1.3107433915138245e-05:0.27146971225738525] [6.631016731262207e-07:0.27923065423965454] [3.4477561712265015e-06:0.27060404419898987] [2.6822090148925781e-07:0.28383290767669678] [5.0365924835205078e-06:0.20664851367473602] [1.2092292308807373e-05:0.25922012329101562] [2.5355257093906403e-06:0.19787105917930603] [5.9604644775390625e-07:0.21243834495544434] [1.2221335055073723e-12:4.460425984120775e-08] [1.1064112186431885e-05:0.27339735627174377] [2.6728957891464233e-06:0.22634690999984741] [2.5974586606025696e-06:0.22667625546455383] [2.2593885660171509e-06:0.21704553067684174] [1.5618279576301575e-06:0.19361458718776703] [1.032254658639431e-06:0.22738379240036011] [1.3977289199829102e-05:0.27602332830429077] [1.9855797290802002e-06:0.30066916346549988] [1.0803341865539551e-06:0.24144694209098816] [3.9786100387573242e-06:0.18721354007720947] [6.2547624111175537e-06:0.17799368500709534] [9.7602605819702148e-07:0.23219163715839386] [9.5926225185394287e-06:0.29770320653915405] [3.9389124140143394e-06:0.22991609573364258] [1.7158687114715576e-05:0.24104040861129761] [2.2821128368377686e-05:0.24852636456489563] [4.898756742477417e-06:0.21007174253463745] [1.3113021850585938e-06:0.25203466415405273] [1.6856938600540161e-06:0.17110656201839447] [5.3420662879943848e-06:0.17492371797561646] [9.6857547760009766e-07:0.26239228248596191] [5.6065618991851807e-06:0.17306922376155853] [1.8635764718055725e-06:0.25056320428848267] [8.7148509919643402e-07:0.22108781337738037] [3.7848949432373047e-06:0.21969705820083618] [1.0162591934204102e-05:0.2468210756778717] [7.1562826633453369e-06:0.203387051820755] [3.5599805414676666e-06:0.21723490953445435] [7.543712854385376e-07:0.19041401147842407] [8.2105398178100586e-06:0.21376520395278931] [3.4868717193603516e-06:0.24288263916969299] [2.7175992727279663e-05:0.26677897572517395] [2.0070001482963562e-07:0.24557310342788696] [4.4964253902435303e-06:0.22345772385597229] [1.2107193470001221e-06:0.25762736797332764] [2.2612512111663818e-06:0.2254394143819809] [1.2506730854511261e-05:0.2386026531457901] [6.4186751842498779e-06:0.18167629837989807] [2.2817403078079224e-07:0.19476574659347534] [1.0065734386444092e-05:0.2417093813419342] [2.9876828193664551e-06:0.24546736478805542] [9.7267329692840576e-06:0.20603932440280914] [5.2154064178466797e-08:0.20102578401565552] [2.6207417249679565e-06:0.167083740234375] [2.2295862436294556e-06:0.26094385981559753] [1.4696270227432251e-05:0.15746332705020905] [1.6948208212852478e-05:0.27160185575485229] [3.643333911895752e-06:0.22681425511837006] [1.9632279872894287e-06:0.16520872712135315] [8.7851658463478088e-06:0.24708278477191925] [6.2315957620739937e-06:0.19160883128643036] [1.7844140529632568e-06:0.194256991147995] [1.3906508684158325e-05:0.22781810164451599] [6.4205378293991089e-06:0.25361835956573486] [9.0822577476501465e-06:0.20224475860595703] [1.9222497940063477e-06:0.24598658084869385] [5.7686120271682739e-06:0.16721801459789276] [2.6468187570571899e-06:0.24536663293838501] [2.6114284992218018e-06:0.21959953010082245] [9.0673565864562988e-06:0.25549218058586121] [8.3744525909423828e-06:0.27246356010437012] [3.8072466850280762e-06:0.25463321805000305] [1.9818544387817383e-06:0.20469425618648529] [5.9604644775390625e-07:0.22793303430080414]
tree_sizes=678

Tree=0
num_leaves=5
num_cat=0
split_feature=0 0 18 0
split_gain=12216 9.09495e-13 9.09495e-13 5.68434e-14
threshold=1.0000000180025095e-35 -0.054860517382621758 0.089670833200216307 -0.035539120435714715
decision_type=2 2 2 2
left_child=1 -1 -2 -3
right_child=2 3 -4 -5
leaf_value=-0.099502293153026625 0.10049771280743822 -0.099502293153026625 0.10049771280743822 -0.099502293153026625
leaf_weight=1445.499913841486 1451.9999134540558 66.749996021389961 77.49999538064003 12.2499992698431
leaf_count=5782 5808 267 310 49
internal_value=0.00066143 -0.0995023 0.100498 -0.0995023
internal_weight=3054 1524.5 1529.5 79
internal_count=12216 6098 6118 316
is_linear=0
shrinkage=1


end of trees

feature_importances:
Column_0=3
Column_18=1

parameters:
[boosting: gbdt]
[objective: binary]
[metric: auc]
[tree_learner: serial]
[device_type: cpu]
[data_sample_strategy: bagging]
[data: ]
[valid: ]
[num_iterations: 300]
[learning_rate: 0.05]
[num_leaves: 31]
[num_threads: 0]
[seed: 0]
[deterministic: 0]
[force_col_wise: 0]
[force_row_wise: 0]
[histogram_pool_size: -1]
[max_depth: -1]
[min_data_in_leaf: 20]
[min_sum_hessian_in_leaf: 0.001]
[bagging_fraction: 0.8]
[pos_bagging_fraction: 1]
[neg_bagging_fraction: 1]
[bagging_freq: 5]
[bagging_seed: 3]
[bagging_by_query: 0]
[feature_fraction: 0.9]
[feature_fraction_bynode: 1]
[feature_fraction_seed: 2]
[extra_trees: 0]
[extra_seed: 6]
[early_stopping_round: 0]
[early_stopping_min_delta: 0]
[first_metric_only: 0]
[max_delta_step: 0]
[lambda_l1: 0]
[lambda_l2: 0]
[linear_lambda: 0]
[min_gain_to_split: 0]
[drop_rate: 0.1]
[max_drop: 50]
[skip_drop: 0.5]
[xgboost_dart_mode: 0]
[uniform_drop: 0]
[drop_seed: 4]
[top_rate: 0.2]
[other_rate: 0.1]
[min_data_per_group: 100]
[max_cat_threshold: 32]
[cat_l2: 10]
[cat_smooth: 10]
[max_cat_to_onehot: 4]
[top_k: 20]
[monotone_constraints: ]
[monotone_constraints_method: basic]
[monotone_penalty: 0]
[feature_contri: ]
[forcedsplits_filename: ]
[refit_decay_rate: 0.9]
[cegb_tradeoff: 1]
[cegb_penalty_split: 0]
[cegb_penalty_feature_lazy: ]
[cegb_penalty_feature_coupled: ]
[path_smooth: 0]
[interaction_constraints: ]
[verbosity: -1]
[saved_feature_importance_type: 0]
[use_quantized_grad: 0]
[num_grad_quant_bins: 4]
[quant_train_renew_leaf: 0]
[stochastic_rounding: 1]
[linear_tree: 0]
[max_bin: 255]
[max_bin_by_feature: ]
[min_data_in_bin: 3]
[bin_construct_sample_cnt: 200000]
[data_random_seed: 1]
[is_enable_sparse: 1]
[enable_bundle: 1]
[use_missing: 1]
[zero_as_missing: 0]
[feature_pre_filter: 1]
[pre_partition: 0]
[two_round: 0]
[header: 0]
[label_column: ]
[weight_column: ]
[group_column: ]
[ignore_column: ]
[categorical_feature: ]
[forcedbins_filename: ]
[precise_float_parser: 0]
[parser_config_file: ]
[objective_seed: 5]
[num_class: 1]
[is_unbalance: 0]
[scale_pos_weight: 1]
[sigmoid: 1]
[boost_from_average: 1]
[reg_sqrt: 0]
[alpha: 0.9]
[fair_c: 1]
[poisson_max_delta_step: 0.7]
[tweedie_variance_power: 1.5]
[lambdarank_truncation_level: 30]
[lambdarank_norm: 1]
[label_gain: ]
[lambdarank_position_bias_regularization: 0]
[eval_at: ]
[multi_error_top_k: 1]
[auc_mu_weights: ]
[num_machines: 1]
[local_listen_port: 12400]
[time_out: 120]
[machine_list_filename: ]
[machines: ]
[gpu_platform_id: -1]
[gpu_device_id: -1]
[gpu_use_dp: 0]
[num_gpu: 1]

end of parameters

pandas_categorical:null
